80 12
</s> 0.033356 0.036828 -0.031919 -0.027317 0.011388 0.025176 0.007840 0.001761 -0.030029 0.018487 -0.036303 0.010413 
de 0.596092 0.544064 0.161488 -0.201241 0.411580 0.154840 0.563264 -0.032624 -0.073012 0.057994 -0.312128 0.228196 
la 0.568489 0.514207 0.158777 -0.130287 0.340514 0.119503 0.479646 -0.070385 -0.071656 0.070152 -0.275844 0.206279 
le 0.502466 0.408843 0.142855 -0.134724 0.274587 0.065232 0.456702 -0.039395 -0.092193 0.052634 -0.240836 0.160456 
à 0.470620 0.437732 0.118992 -0.176825 0.301377 0.119842 0.439098 -0.063569 -0.031524 0.085109 -0.202606 0.136409 
les 0.301409 0.227995 0.072464 -0.066009 0.173026 0.070115 0.265177 -0.051499 -0.058643 0.064949 -0.091661 0.121678 
des 0.382621 0.357929 0.119549 -0.107810 0.233316 0.112305 0.395362 -0.047352 -0.074866 0.051178 -0.155291 0.164354 
Le 0.145949 0.180159 0.088206 -0.033057 0.140206 0.012539 0.122862 -0.029930 -0.048499 0.045842 -0.060588 0.049318 
députés 0.405083 0.402931 0.161594 -0.135864 0.297235 0.055242 0.417467 -0.027897 -0.070871 0.050539 -0.202594 0.110446 
que 0.288344 0.265868 0.141349 -0.113532 0.188465 0.086963 0.278655 0.010831 -0.062951 0.019380 -0.129812 0.103432 
du 0.128735 0.149543 0.059529 -0.050252 0.118910 0.004530 0.149872 0.000612 -0.048810 0.021824 -0.076921 0.032617 
Chambre 0.289026 0.236135 0.105382 -0.089602 0.207310 0.032270 0.240620 -0.066553 -0.079955 0.051442 -0.139337 0.114156 
et 0.468450 0.487733 0.132256 -0.160555 0.307155 0.147396 0.409060 -0.033760 -0.087081 0.105861 -0.227851 0.191098 
pour 0.173691 0.153887 0.026834 -0.087776 0.103748 0.017423 0.196816 -0.036825 -0.008635 0.064216 -0.083479 0.086441 
président 0.164794 0.158071 0.013931 -0.075093 0.058060 0.031084 0.163066 -0.034072 -0.047891 -0.016848 -0.039509 0.004960 
d'élection 0.191008 0.201735 0.019515 -0.098728 0.138475 0.070451 0.207204 0.002472 -0.003771 -0.000861 -0.123265 0.089637 
au 0.543054 0.525110 0.190029 -0.154585 0.360166 0.120481 0.489475 -0.056862 -0.124308 0.071488 -0.229679 0.196895 
séance 0.268452 0.248592 0.121142 -0.116784 0.170658 0.105809 0.293871 -0.055584 -0.033846 0.033297 -0.131193 0.122278 
vous 0.078142 0.043426 0.047804 0.019617 0.023812 0.045536 0.053543 0.035348 -0.020910 0.046303 0.018896 -0.002538 
(M. 0.104370 0.177248 0.049352 -0.063593 0.081637 0.026843 0.094508 -0.025731 -0.023885 -0.021404 -0.093575 0.029801 
Je 0.142165 0.149594 0.054945 -0.048336 0.124451 0.043722 0.141558 0.019069 -0.032716 0.013341 -0.073458 0.021793 
greffier 0.474118 0.456996 0.200163 -0.161884 0.329813 0.072511 0.481575 -0.050065 -0.050580 0.064713 -0.234534 0.168780 
en 0.310795 0.251146 0.126144 -0.091202 0.196745 0.056630 0.215989 0.014721 -0.028478 0.017791 -0.102116 0.053640 
Caccia): 0.117871 0.175627 0.022123 -0.073179 0.125632 0.063323 0.142572 0.024549 0.016329 0.056794 -0.055935 0.009158 
je 0.351073 0.263547 0.093675 -0.091175 0.228108 0.061471 0.328046 -0.068511 -0.064942 0.048863 -0.167714 0.134749 
La 0.331598 0.355145 0.138312 -0.086894 0.280622 0.086067 0.343385 -0.068822 -0.064752 0.095908 -0.187348 0.163036 
dans 0.533975 0.460665 0.148221 -0.125956 0.380039 0.085270 0.527113 -0.075811 -0.118924 0.115036 -0.256354 0.158989 
est 0.226949 0.182668 0.093274 -0.034686 0.182628 0.012982 0.186123 -0.024188 -0.039343 0.074674 -0.087183 0.114453 
été 0.297850 0.309610 0.138357 -0.113259 0.236194 0.080304 0.255305 0.008365 -0.010380 0.031885 -0.150803 0.092217 
un 0.117528 0.046837 0.058329 -0.030919 0.050596 0.000649 0.043028 -0.037488 -0.026323 0.053848 -0.061135 -0.016961 
h 0.376418 0.344970 0.151530 -0.112572 0.282229 0.113964 0.332402 -0.039451 -0.048126 0.081234 -0.143160 0.158634 
maintenant 0.211590 0.188989 0.058745 -0.091338 0.161301 0.013203 0.186783 -0.061398 -0.017333 0.074118 -0.125822 0.034294 
bulletin 0.581293 0.524392 0.154263 -0.176699 0.351609 0.115238 0.487662 -0.039373 -0.110033 0.124967 -0.223395 0.212402 
DE 0.125606 0.129097 0.049440 -0.063697 0.049950 0.019222 0.107114 0.013132 0.003124 0.039409 -0.090854 0.073824 
LA 0.139586 0.171383 0.061767 -0.008317 0.125129 0.039283 0.120550 0.030691 -0.041914 0.054276 -0.028284 0.091664 
Les 0.131221 0.153559 0.079322 -0.062529 0.128505 -0.011435 0.126283 -0.016916 0.014649 -0.010360 -0.076860 0.029776 
sont 0.179092 0.198273 0.040358 -0.095054 0.100744 0.074748 0.166924 0.008714 -0.057336 0.023305 -0.077216 0.035562 
aux 0.315270 0.214960 0.119157 -0.107155 0.219420 0.089345 0.247249 0.007359 -0.039503 0.092557 -0.164282 0.082438 
nous 0.108807 0.111771 0.044297 -0.032924 0.056206 0.014143 0.092030 0.010663 -0.046062 -0.002256 -0.002111 0.023917 
vote, 0.454823 0.419885 0.141091 -0.170773 0.312538 0.107727 0.336478 0.002466 -0.100090 0.054573 -0.151937 0.168718 
tour 0.578442 0.538211 0.158797 -0.218498 0.396623 0.163074 0.569367 -0.019798 -0.076309 0.118188 -0.273983 0.205625 
ayant 0.169350 0.181905 0.066170 -0.056820 0.144763 0.045122 0.139128 -0.028734 -0.012280 0.059838 -0.122458 0.069382 
qui 0.622104 0.577409 0.137303 -0.161631 0.356045 0.109847 0.536748 -0.035904 -0.124515 0.066763 -0.257545 0.180101 
scrutin 0.419274 0.364243 0.099031 -0.120524 0.255237 0.059568 0.370427 -0.053748 -0.016089 0.075874 -0.219056 0.131456 
SÉANCE 0.177536 0.175739 0.086157 -0.055143 0.114303 0.042645 0.139158 -0.016053 0.005424 0.062435 -0.070089 0.014541 
septembre 0.043594 0.014409 0.043749 0.024244 0.054728 0.025833 0.043612 -0.019898 -0.026704 -0.013579 -0.051935 0.010582 
se 0.210562 0.196528 0.080310 -0.090727 0.156839 0.030134 0.146661 0.014345 -0.058680 0.025136 -0.130694 0.097950 
Gouverneur 0.054872 0.019920 0.057173 -0.003176 0.076757 0.026868 0.089909 -0.005873 0.017200 0.045148 -0.019406 0.009332 
faire 0.085080 0.099747 -0.000160 -0.025120 0.059617 0.033479 0.071975 0.022330 -0.001841 0.042601 -0.065537 0.006966 
liste 0.557711 0.534261 0.183305 -0.164099 0.301191 0.077933 0.521278 -0.019147 -0.102088 0.070893 -0.279312 0.140422 
leur 0.229571 0.152577 0.068787 -0.068517 0.104656 0.035409 0.125871 -0.036086 -0.027270 0.064949 -0.101987 0.088579 
a 0.339168 0.376174 0.120685 -0.116815 0.261966 0.106052 0.313592 -0.002290 -0.045699 0.052522 -0.145965 0.121556 
chaque 0.392983 0.327917 0.098988 -0.084364 0.201523 0.074344 0.355240 0.013741 -0.084497 0.070118 -0.131179 0.117213 
M. 0.034655 0.033748 0.043761 -0.009668 -0.001211 0.027930 -0.031119 0.007107 0.000094 0.038680 -0.036901 0.003317 
général 0.099262 0.064056 0.044651 -0.005744 0.052805 0.026756 0.055379 0.023076 0.021235 0.033061 -0.047443 -0.007530 
pas 0.306663 0.298264 0.078042 -0.139567 0.198193 0.099952 0.319961 -0.073475 -0.068664 0.085976 -0.155054 0.133872 
ce 0.548523 0.506311 0.151189 -0.159694 0.324116 0.142268 0.486436 -0.022473 -0.108407 0.082065 -0.225023 0.198612 
sur 0.085881 0.076479 0.045948 -0.026275 0.074015 0.047942 0.087713 0.030991 -0.028939 -0.027630 -0.057010 0.019547 
candidats 0.539659 0.517209 0.140282 -0.135116 0.371321 0.140851 0.477165 -0.027919 -0.086976 0.128859 -0.280241 0.129572 
aura 0.239434 0.199243 0.113884 -0.079975 0.151422 0.072543 0.209420 -0.037434 -0.007237 0.039032 -0.092031 0.061880 
qu'ils 0.469348 0.407363 0.176298 -0.091112 0.273701 0.105936 0.396514 -0.050322 -0.023367 0.096925 -0.224271 0.177839 
dépouillement 0.275253 0.259336 0.056327 -0.066730 0.179484 0.039993 0.240891 -0.001564 -0.054089 0.077223 -0.149413 0.070477 
bulletins 0.356436 0.332008 0.141216 -0.063136 0.175529 0.047500 0.257125 -0.015091 -0.083628 0.054429 -0.141732 0.090239 
sera 0.423691 0.340882 0.143962 -0.141305 0.253810 0.079513 0.392696 -0.045271 -0.078819 0.047838 -0.208891 0.101752 
vote 0.327494 0.271531 0.087423 -0.080658 0.164953 0.038963 0.240785 -0.024406 -0.060376 0.019006 -0.125569 0.060616 
* 0.006243 0.037307 0.052412 -0.040143 -0.004262 0.052726 0.047307 0.036055 0.031612 -0.023144 -0.031688 0.027256 
lundi 0.035238 0.042558 0.031551 -0.041046 -0.031804 0.009636 -0.030926 0.023549 0.034797 -0.018660 0.027795 -0.042918 
22 0.046227 -0.008382 -0.002591 -0.043493 0.033412 0.039092 -0.027233 -0.009105 0.006864 0.037572 -0.003733 -0.041038 
Caccia) 0.008978 -0.010431 0.009531 0.031741 -0.023068 -0.021858 -0.002316 -0.009812 -0.015815 -0.031512 -0.000926 -0.034449 
d'une 0.449299 0.390614 0.123468 -0.095059 0.242871 0.047965 0.407921 -0.025305 -0.044040 0.052607 -0.199465 0.164833 
ne 0.206677 0.210487 0.032817 -0.104704 0.184631 0.014112 0.203635 -0.043035 0.003021 0.029989 -0.063446 0.041166 
qu'il 0.065288 0.014269 -0.007283 -0.027023 0.075859 -0.003851 0.072483 -0.008005 0.017601 0.033208 -0.051437 -0.011634 
14 0.353817 0.313794 0.123234 -0.095650 0.247997 0.108684 0.340851 -0.072604 -0.011593 0.031184 -0.152684 0.081340 
me 0.084414 0.116423 0.008082 -0.012952 0.039220 0.010460 0.108423 0.009643 -0.052249 0.035752 -0.046723 0.042485 
bien 0.122180 0.073350 0.042244 -0.067903 0.101129 0.034504 0.117993 0.012364 0.023262 0.060280 -0.036008 0.061361 
s'avancer 0.343343 0.289098 0.140644 -0.103104 0.227930 0.063711 0.305146 -0.032157 -0.012621 0.071893 -0.153543 0.100590 
voter. 0.122385 0.064566 0.018020 -0.019201 0.075400 -0.012046 0.077796 -0.022691 -0.031828 0.052454 -0.014469 -0.002738 
suspendue 0.340837 0.270244 0.118230 -0.082454 0.211010 0.044444 0.291100 -0.038293 -0.021543 0.076735 -0.140288 0.087214 
(La 0.169688 0.168592 0.038314 -0.092805 0.116552 0.019494 0.140972 -0.008449 -0.047784 0.053144 -0.098346 0.090587 
comme 0.044202 0.042761 0.043024 -0.036616 0.009829 0.007226 0.089607 -0.019374 0.022278 0.028594 -0.058231 0.063031 
