90 12
</s> 0.033356 0.036828 -0.031919 -0.027317 0.011388 0.025176 0.007840 0.001761 -0.030029 0.018487 -0.036303 0.010413 
the 0.341154 1.477073 -0.315216 -0.932705 0.443835 -0.460790 1.214055 0.486394 0.772400 0.307793 -0.519025 -0.055859 
of 0.357655 1.415058 -0.274665 -0.829225 0.393081 -0.450574 1.122881 0.423924 0.718409 0.311368 -0.481627 -0.052401 
to 0.373423 1.443948 -0.292250 -0.896642 0.382175 -0.512154 1.204796 0.464983 0.712803 0.298834 -0.495755 -0.087893 
The 0.121639 0.550467 -0.133792 -0.363585 0.154228 -0.162750 0.445977 0.146833 0.307626 0.124558 -0.164567 -0.045328 
I 0.278111 1.035035 -0.226727 -0.641434 0.298601 -0.348077 0.876494 0.306249 0.520659 0.262560 -0.302548 -0.045356 
House 0.243063 1.108316 -0.232493 -0.687502 0.293254 -0.348976 0.932148 0.349652 0.562704 0.239501 -0.323125 -0.049612 
and 0.278980 1.292770 -0.204551 -0.763783 0.394973 -0.443435 0.999285 0.382121 0.610489 0.302512 -0.390245 -0.081175 
that 0.304322 1.386284 -0.240612 -0.865128 0.418493 -0.500004 1.152839 0.444432 0.687048 0.305279 -0.457716 -0.122298 
a 0.233857 1.132917 -0.192845 -0.733477 0.309264 -0.362613 0.924063 0.406077 0.570672 0.224710 -0.352751 -0.078030 
will 0.148500 0.760683 -0.140788 -0.480109 0.231491 -0.286167 0.621295 0.258089 0.361638 0.177665 -0.244574 -0.072902 
members 0.155633 0.705053 -0.150277 -0.463911 0.212488 -0.284057 0.563723 0.200325 0.348241 0.158711 -0.234074 -0.046109 
for 0.213824 1.083683 -0.219357 -0.655817 0.287328 -0.301631 0.807081 0.342316 0.520868 0.267024 -0.338460 -0.033255 
in 0.265708 1.244712 -0.276344 -0.816851 0.334249 -0.441813 1.046032 0.383912 0.666056 0.316277 -0.402490 -0.060289 
have 0.175656 0.688752 -0.166630 -0.451244 0.164529 -0.218038 0.568944 0.195267 0.314275 0.114832 -0.184324 -0.083946 
are 0.190890 0.854549 -0.202831 -0.553093 0.250087 -0.243249 0.705008 0.286665 0.452442 0.163576 -0.301947 -0.018802 
Presiding 0.039627 0.303275 -0.051994 -0.168186 0.077859 -0.093096 0.216100 0.083392 0.113705 0.035569 -0.063911 -0.018119 
been 0.176981 0.845033 -0.143736 -0.567411 0.229195 -0.242631 0.725919 0.242303 0.447262 0.177854 -0.277390 -0.036364 
is 0.229626 0.831470 -0.120822 -0.475294 0.223812 -0.235605 0.679095 0.302271 0.392298 0.219490 -0.223081 -0.067665 
Officer 0.074079 0.572785 -0.092500 -0.350023 0.152466 -0.176081 0.387528 0.155536 0.268540 0.069774 -0.202786 -0.053953 
(Mr. 0.104094 0.518210 -0.090094 -0.321633 0.178842 -0.155464 0.411145 0.193159 0.248426 0.099316 -0.160921 -0.067485 
on 0.200438 0.975677 -0.154487 -0.618467 0.276664 -0.360238 0.819561 0.293990 0.525125 0.197329 -0.326996 -0.067073 
at 0.225121 0.793219 -0.118957 -0.495985 0.244151 -0.271003 0.614839 0.294543 0.415210 0.156996 -0.226352 -0.098908 
be 0.213772 1.115767 -0.237262 -0.705719 0.345763 -0.329500 0.884000 0.391160 0.603206 0.282525 -0.343822 -0.112085 
this 0.198884 0.722098 -0.159443 -0.463860 0.228635 -0.265113 0.643787 0.204312 0.378575 0.161810 -0.264699 -0.026496 
you 0.153423 0.843980 -0.147465 -0.483077 0.260766 -0.267751 0.670284 0.223128 0.396718 0.208841 -0.274906 -0.016966 
ballots 0.292569 1.249933 -0.268230 -0.741839 0.393186 -0.463314 1.084630 0.372529 0.605261 0.312614 -0.416109 -0.101247 
Clerk 0.114138 0.468167 -0.075702 -0.271294 0.174178 -0.198622 0.378080 0.158208 0.241456 0.145129 -0.141164 0.005128 
Caccia): 0.074962 0.488127 -0.052800 -0.307810 0.165101 -0.142585 0.329345 0.187046 0.281501 0.075104 -0.152345 -0.055047 
now 0.213586 0.791327 -0.128428 -0.514941 0.225651 -0.287854 0.627278 0.237107 0.407514 0.222553 -0.289134 -0.092131 
has 0.198476 0.838673 -0.133658 -0.525241 0.271727 -0.248862 0.666188 0.261751 0.434305 0.207897 -0.243804 -0.024875 
ballot 0.250266 1.135012 -0.235051 -0.737564 0.339300 -0.414154 0.921039 0.321141 0.607011 0.301151 -0.394501 -0.111804 
sitting 0.138265 0.474065 -0.108721 -0.288121 0.119376 -0.148001 0.358239 0.154736 0.212677 0.141723 -0.115028 -0.000673 
hon. 0.158623 0.748789 -0.141911 -0.488982 0.177737 -0.254127 0.590196 0.260362 0.403849 0.183653 -0.272922 -0.017335 
polling 0.168872 0.786516 -0.133698 -0.428462 0.238548 -0.244341 0.602242 0.285880 0.367325 0.205117 -0.202344 -0.010596 
my 0.160956 0.743641 -0.104187 -0.462513 0.244658 -0.281557 0.581096 0.233126 0.394054 0.124893 -0.237288 -0.066472 
as 0.135219 0.605300 -0.124769 -0.387614 0.146848 -0.153303 0.460227 0.203718 0.252296 0.112761 -0.177743 -0.059784 
It 0.107334 0.280886 -0.038172 -0.222357 0.120091 -0.082948 0.247337 0.134617 0.170027 0.112985 -0.131876 -0.035295 
not 0.173393 0.695429 -0.108468 -0.414974 0.191739 -0.225728 0.539860 0.235419 0.300631 0.138580 -0.173850 -0.046951 
OF 0.061449 0.123992 -0.009612 -0.089123 0.062027 -0.009025 0.029484 0.057963 0.001357 0.001174 0.010406 0.022795 
with 0.179401 0.804629 -0.181902 -0.536741 0.248774 -0.224414 0.679327 0.280208 0.421717 0.195417 -0.260089 -0.045159 
we 0.112491 0.588574 -0.111757 -0.369144 0.188294 -0.183386 0.429408 0.177193 0.315907 0.156142 -0.223545 -0.033858 
voting 0.131030 0.452033 -0.114208 -0.233211 0.095905 -0.155787 0.354916 0.152345 0.180262 0.069878 -0.123325 -0.027181 
having 0.137687 0.442650 -0.104570 -0.269007 0.134281 -0.161575 0.369525 0.113709 0.264330 0.106528 -0.172828 -0.029723 
would 0.188917 0.825693 -0.131560 -0.506012 0.233300 -0.266022 0.639817 0.256557 0.445378 0.215560 -0.247233 -0.096172 
it 0.103646 0.422815 -0.054610 -0.237749 0.153245 -0.129599 0.361167 0.129204 0.200958 0.082400 -0.174616 -0.025671 
counting 0.189338 0.776212 -0.134601 -0.505915 0.247273 -0.268880 0.586457 0.275215 0.367966 0.170856 -0.287355 -0.007910 
SITTING 0.007718 0.069244 0.011809 -0.052431 0.059744 -0.024311 0.117708 0.037504 0.084254 0.060936 -0.020425 -0.010685 
September 0.137692 0.580727 -0.133451 -0.345143 0.168651 -0.161266 0.447205 0.206338 0.293748 0.151219 -0.208303 -0.054412 
Parliament 0.067045 0.276065 -0.038958 -0.142996 0.026331 -0.111008 0.217252 0.094741 0.098309 0.035017 -0.107059 -0.048107 
Sitting 0.036736 -0.022101 0.008871 -0.009654 -0.018054 -0.004698 -0.038064 -0.019190 -0.001440 0.036938 -0.015435 0.030795 
was 0.131482 0.747101 -0.138070 -0.438361 0.222881 -0.201845 0.541730 0.260057 0.376213 0.153836 -0.198694 -0.048263 
Governor 0.164110 0.536169 -0.120659 -0.301930 0.123013 -0.186537 0.470450 0.208093 0.242229 0.124720 -0.140816 -0.034725 
member 0.091387 0.328282 -0.022686 -0.197028 0.076576 -0.076443 0.202207 0.105291 0.157686 0.106156 -0.126550 -0.021783 
list 0.175136 0.566236 -0.090488 -0.341254 0.167740 -0.181968 0.461806 0.204254 0.329586 0.146573 -0.212856 -0.062091 
each 0.127172 0.621328 -0.142739 -0.429988 0.165060 -0.183413 0.542420 0.159920 0.311480 0.180583 -0.211416 -0.016234 
their 0.142057 0.627907 -0.139633 -0.361096 0.139987 -0.189380 0.488280 0.224130 0.290363 0.120253 -0.166201 -0.018492 
booths 0.156920 0.595067 -0.083632 -0.360030 0.197709 -0.159611 0.497645 0.225346 0.273010 0.097466 -0.211492 -0.034852 
vote 0.210737 0.926112 -0.197944 -0.522066 0.284111 -0.264761 0.716455 0.298224 0.439843 0.243770 -0.327546 -0.096539 
our 0.129785 0.496975 -0.056862 -0.322623 0.145123 -0.143982 0.412121 0.133814 0.279565 0.117248 -0.150697 -0.040353 
General 0.216447 0.770102 -0.106652 -0.424941 0.207380 -0.235097 0.622141 0.217470 0.419281 0.186167 -0.270169 -0.014294 
Canada 0.053301 0.216970 -0.072504 -0.108304 0.055540 -0.089499 0.160007 0.085250 0.095543 0.075224 -0.092577 -0.035154 
his 0.111571 0.397369 -0.037814 -0.181871 0.058890 -0.144133 0.243848 0.123006 0.147295 0.074242 -0.105107 -0.042567 
proceed 0.231742 0.904118 -0.166443 -0.596458 0.257105 -0.324564 0.782596 0.284473 0.457905 0.184979 -0.323163 -0.098621 
who 0.164698 0.624948 -0.142136 -0.375708 0.145299 -0.241240 0.473175 0.202196 0.310328 0.099209 -0.192727 -0.087868 
names 0.159917 0.785170 -0.107194 -0.509871 0.205931 -0.218771 0.657221 0.280438 0.427461 0.155218 -0.273440 -0.029256 
open. 0.158976 0.595009 -0.077712 -0.385169 0.123625 -0.179787 0.418109 0.206701 0.319124 0.109666 -0.146528 -0.080199 
suspended 0.191638 0.626639 -0.132631 -0.442532 0.211227 -0.173999 0.485815 0.202506 0.337222 0.187548 -0.205751 -0.088996 
(The 0.109338 0.406290 -0.075331 -0.229627 0.096149 -0.160774 0.337531 0.131007 0.205104 0.075142 -0.133444 -0.063372 
* 0.137105 0.476527 -0.097152 -0.250183 0.104020 -0.189356 0.399544 0.152082 0.251206 0.068874 -0.154423 0.001207 
Monday, -0.003025 0.048865 -0.048836 -0.060010 0.054192 -0.052922 0.040337 -0.014940 0.058590 0.003721 0.025668 -0.033273 
Caccia) 0.008865 -0.032958 -0.029147 -0.015125 0.039011 -0.023151 0.025269 -0.004395 0.032551 0.023094 -0.025740 -0.032530 
Mr. 0.089171 0.350634 -0.060952 -0.211314 0.115506 -0.085520 0.310583 0.069388 0.212523 0.044940 -0.103526 -0.056888 
issued 0.095209 0.477073 -0.105556 -0.253196 0.105577 -0.154552 0.383548 0.160258 0.184934 0.109385 -0.142555 -0.012328 
His 0.108711 0.397420 -0.082999 -0.302505 0.147902 -0.139537 0.365917 0.157056 0.262294 0.129938 -0.117537 -0.009493 
Excellency 0.122561 0.441486 -0.050255 -0.282710 0.145786 -0.161168 0.381353 0.135734 0.268100 0.115331 -0.148539 -0.036486 
chamber 0.205182 0.774282 -0.173255 -0.480706 0.234216 -0.302528 0.634469 0.238179 0.387167 0.206092 -0.226103 -0.089351 
first 0.125445 0.354690 -0.066392 -0.212334 0.102581 -0.163886 0.312206 0.108719 0.219706 0.103096 -0.118671 -0.047433 
Speaker 0.125440 0.557672 -0.128998 -0.384374 0.161295 -0.202928 0.425467 0.188829 0.261164 0.150888 -0.193607 -0.006061 
attention 0.065080 0.391127 -0.057866 -0.267863 0.079083 -0.138089 0.351919 0.116311 0.242216 0.109751 -0.157072 0.018875 
placed 0.128317 0.684904 -0.104443 -0.474665 0.237938 -0.203786 0.607310 0.214285 0.347912 0.165834 -0.240192 -0.093835 
please 0.154710 0.825709 -0.150688 -0.462142 0.256582 -0.300191 0.693356 0.250711 0.441969 0.179404 -0.247498 -0.054336 
If 0.213366 0.817554 -0.169481 -0.451174 0.188638 -0.222599 0.625774 0.258286 0.410389 0.213720 -0.238149 -0.060612 
do 0.222190 1.177807 -0.213085 -0.679129 0.288732 -0.391011 0.891841 0.351183 0.596229 0.279562 -0.371366 -0.056554 
may 0.092303 0.411074 -0.117214 -0.287554 0.123780 -0.157181 0.324709 0.100629 0.240711 0.136790 -0.152277 0.007230 
call 0.061609 0.277492 -0.110194 -0.204169 0.070357 -0.105014 0.227815 0.133138 0.145728 0.087513 -0.075242 -0.024343 
more 0.109801 0.649298 -0.117936 -0.364112 0.186582 -0.190360 0.545964 0.222040 0.290344 0.133953 -0.178121 -0.056074 
p.m.) 0.135330 0.681420 -0.137037 -0.356312 0.203946 -0.173926 0.552495 0.176191 0.334941 0.184315 -0.223897 -0.028758 
second 0.097668 0.619979 -0.142784 -0.349962 0.177633 -0.222198 0.497350 0.181773 0.258130 0.104795 -0.192540 -0.022244 
your 0.139636 0.634473 -0.088418 -0.424596 0.214733 -0.230700 0.475881 0.232361 0.286699 0.137667 -0.240583 -0.074272 
